{"weights": [0.2908669690288648, 0.46989470072497935, -0.544767676672194, -0.9167578963354647, 0.7905699693807922, -2.8565755394691887, -1.7350397538743967, 0.5668163071048817, 0.041086076553778626, -0.6365013464944659, 0.94366953026787, -1.1225352794599432, 0.18760180359543746, -0.7097699820966072, 1.3651312208982858, -0.44775226581278793, -0.45662994190105594, -0.5704178844759704, -1.3833606409740726, 0.7932216464062657, 0.572926738220205, 0.4960260119114785, -0.9948054787105338, 0.5920166587794429, 0.3780196286653996, 0.6924221413520066, -0.2630372855793316, 1.21799563083553, -0.5306836128705099, 1.953342152405043, 0.15173861908022798, 0.16396955306841782, 0.6853960789442288, -0.40983173761910446, 0.38793118339116917, -2.5421435640624566, -0.11467059575047128, 0.009800988241509778, 0.07534410228305989, 0.4330676363942161, 1.0703731528759648, -0.7387129397237464, 0.3280492481287843, -0.9951733673488043, 0.542004572514519, -0.024757455341366023, -0.7881588023258962, -0.7542093565958438, -0.7011841879674333, 0.15809169199946527, 0.2366087284087832, -0.17118953682978993, -0.6381090714162323, -0.23587699344047855, -0.147596585874874, 1.6069822349892222, 0.47173460215303864, 0.4877034300754724, 0.6736420300052693, -0.4235957235767588, -0.48051706103557495, -0.25748774930352986, 0.9289365568267718, -0.059286053837315084, -0.12864432867304657, -0.8258428803107374, 0.08750026951713909, 1.769623202898898, -1.576077955903081, -1.9991167978628173, 0.7779551160133626, 0.46147709187054115, 1.8044178262673958, -0.48117628524231704, 0.07082851772217347, 0.45362053611219105, 0.5149257203333876, -0.12155372229286024, 0.18056501802082173, -2.1768188250294958, -0.4829633493304495, -1.593443221604789, 0.12739632162872913, -1.07417162372204, -0.12284582051824691, -0.09798259590300026, -0.8095545015631962, 1.566591784540512, 0.1426176581156594, -0.7615645683894503, -0.12447582436649691, 1.8273503791713486, -1.5979385959403538, -0.4611153650491379, -2.165445752119873, -0.9478979848210648, -1.4201696277570162, 0.173355089455316, 1.8742741025109757, -1.0307004493242884, 0.6784362637066145, -2.1942698336843076, -0.6813683620450929, -0.32450839804741016, -2.2397945242121633, 0.4934937799887912, -1.1374942706462268, -1.0542254598845, -0.22949829465718288, -0.4559396070536972, 0.15016884800405803, -0.17164087201816833, -0.18986856288717668, 0.520381247617302, 1.213179058294898, -1.1616418863968363, 0.5626147671183263, 1.5653480975865501, -0.5106918718718887, -0.5329589192259653, -0.9697115766776541, 0.7460166059121145, 0.7389569556157682, -0.32617102185241353, 0.47279795205044334, -1.1541322054031045, 0.7227635134378398, 0.46182539349301355, -1.1343534456305693, -0.3116852671078595, 0.37768351205508816, 0.9220104870326221, -0.7889192946292016, 0.4632763644881589, -0.3948617925467862, -0.877801771068339, -0.1972210802153269, -0.0055031310262056, 2.1296891386313384, 1.9799277534364983, -0.6666065558886723, 1.6722741755196837, -2.304241494278016, -0.06358918593977513, -0.6928715841396925, -0.4180752095267229, -0.40439484620033006, 0.06639348730801095, -0.26178700577850295, 0.5187860028369025, -2.7359223824180474, -0.5976919871848829, -0.4466948776931859, 0.029796995901254418, 0.8503306485723207, 0.1999640066804438, 1.1583196632155701, 0.45601906867171854, -0.05013314765401413, -1.4824513193747544, -1.0753653850325486, 0.7236759623499495, 0.7702681842101112, -0.42759963887788766, 0.03199811773874793, -0.3572398356879371, -0.45688744217625055, 0.06976146249316652, -1.1137943161971664, -0.32757415822192293, -0.11042013430344319, 1.2807685129475515, -0.15486723330540297, 0.8419947968572827, 1.7584896486584498, -0.1945485625055254, -1.736800719291471, 0.6556348474782755, -1.0091153775611157, 0.6779814116779509, -0.26196609900382345, -2.2149472147821947, 0.8610815644052692, -0.5048920344457591, 0.9321269475609166, 1.2007691567267156, -1.351193725471643, -0.5189227380885025, -1.269929252952786, 0.9798832806634571, -0.2885384903841384, -0.5480550736062949, 1.109975020087293, -1.3417653143584962, 1.8467684057566753, -0.5113247973278875, -0.6317195803223357, -0.21377289359987006, -1.620872107554728, 2.693055507269246, 1.6952336596025221, -0.9672868115428696, -0.153130060636419, 0.691938008561667, 1.2987181587268148, -0.1314600117059879, 1.2169228548073503, -0.8603423168822241, -0.5252004977854384, -0.32072704997188506, 0.5311613530861276, 1.7955996070853673, -0.5421455210005461, -1.2529474957425857, -0.09954969870251865, 1.1072221094042805, 1.8238034323544305, -0.8560411574580392, -0.6098026943142841, 0.8130642031115956, 1.0808062469177233, -0.369216727543195, 0.8430553150607518, -2.1796692383409906, 0.9958767283629663, 1.005968846641966, 0.1568760116530106, 0.9713002093001589, 1.9634511922547242, 0.2368877745267561, -1.142220187699385, 0.5347731985830192, -0.28232712536355276, -1.3323561974269948, -0.03684221901030089, -0.8475110898676081, -0.6140249941226943, 0.4523854166291179, -0.3195850718293669, 0.27026739746554024, -0.6535801299021916, -1.639804357151804, -0.8119564658739676, -0.09158392523512066, 0.008380957152512613, 0.033437423859763386, -0.4768830992798853, -0.7818934784046195, -1.7356495011343407, -0.23672896199591786, -1.8128890498679793, -0.19880492424832769, 0.8800797490541074, -0.3568394170061607, 0.7741826165992587, 0.30782876286643296, -5.536157964346369], "biases": [-0.2453867022776356, 1.7182669358240492]}