{"weights": [0.593277530265577, 0.6243075043845392, 2.323585556228458, 0.45392913212800523, 0.014116703911250878, 0.9133380721085436, -0.6209374175459785, 0.5495182863206303, 1.5899122126115284, -0.8761790375702285, -0.8719457933156339, 0.1324761565015918, -1.224935724686908, -0.0003364973143594831, 1.2855017168351388, -1.1840907440995125, 2.601179363787094, 0.4026825179400861, -1.0311924463667728, -1.3251712732907865, 1.1681744197384227, 0.3298114876034695, -0.1431504221390329, 1.2410422553495046, -0.11371102801449562, -1.5838008028875592, 0.5756382492143404, -1.105393675369029, -1.612850377142291, -1.3915183326459546, 0.7577726767863228, -0.5409060056387426, -0.5061288487738895, 0.40245515788618097, 0.6546028685144695, -0.8773353241698206, 0.6069401067778927, -0.42911152056460433, 0.24537592107081668, -0.8378423976772799, 0.5718739309276907, 0.05180668831359625, 1.0000710625831908, -0.2170117454327542, -0.5030813003154293, -0.6632287562356382, -0.4041058097862252, -0.988103649954484, 0.8052961769581302, 0.22238345111668067, 0.024314053959760218, -0.279985383534226, 1.1961273003114554, 1.9212342948098537, 0.547119227737307, 0.5447770636146465, 0.5938871641129373, 0.9917274226408873, 0.49164478264563083, -1.4965500145560964, 0.8448467111052985, 0.1240803018509522, -0.963643268050867, 0.7681072718505767, 0.29648942189507876, -0.5216211896425004, -0.16249804626361491, -0.09074538613448797, 0.17761063403856506, -1.058425973150492, -0.03347789755516339, 0.20301698245640862, -0.03068633254433138, 0.6508390334907029, -0.01260636365261528, 0.3813666424033961, 1.508274355297641, 0.6571938605532468, 0.17265653667085906, -0.6009182208231872, 0.2948707957480064, -0.15340505928553616, -1.0237443066925684, 1.1599596378384986, -0.37269562238425286, -0.7412182614999187, 1.8661392953223293, 0.10794324607950657, -2.2185536218637902, 0.6206279668572788, 2.182683330908131, 0.23103928632344958, -0.5332452386586515, 1.181527509108358, -0.05008650762517761, 2.125342094028263, 0.7136264534771539, 2.235079495348516, 0.6151775826115896, 1.5257387503285504, 0.6189040796790513, 0.6473049890990938, -0.9434817536022745, 0.1915237496192983, -2.5448024297202165, -0.6197335656701773, -0.313419186964715, 0.7482830284083594, -0.6909548205677478, 1.6276722831717574, 0.05385773492905306, 1.2258321852188967, 0.12542174442334506, 0.7697564966308693, 0.39986428662183227, 1.1922617321970486, 1.3913798916458657, -0.9299883691943397, -0.8428117791437594, -0.8383179086220417, -2.8027867430365587, -0.9099490564223744, 0.23034711644295028, 0.9957321737937082, 0.5014237712790601, -0.42600121192683593, 0.5892137307877451, 2.1797138611318623, 0.44112265438182746, 1.4105002586472128, -0.21005502619451505, -1.4319489225756572, -0.17626509433242804, 0.4146271796029687, 0.24509320685711003, -1.8281378870922589, -2.0422761378948358, -1.64759048933826, -0.6823739747204386, -2.1256848738162115, -0.38997955411148166, -0.39090812542992914, 1.994900810026763, 1.5293660819381352, -0.5322327565934823, 0.6828001264551421, -0.3774790467694821, -0.9341546666506575, 0.36400249847191396, -0.061874852281715714, 2.094143754844373, -0.67618694784487, -1.874241437712134, 0.3905853402514789, 2.215254903327249, -0.06533043510623547, 0.513470633095401, -0.48461818831603887, -1.1125415293068164, -0.003979294696826183, 1.2060085646184864, 0.07710395864743265, 1.9268065652386517, 1.427370945031456, 0.7714865784883815, 1.6501394219073953, 0.24953240886338438, -2.9642546774329306, -1.9935752716352098, -2.040426443943676, -0.43453842994977027, 0.739448754802671, -0.5587562191543276, 1.0251965566808225, -0.6148448974454432, 0.7090833787696839, -0.062470416175138994, -0.018071974911164947, 0.5384070987006555, 0.05109928805650652, 1.6802104407221505, 1.2911005007316856, -0.5220316008900848, -1.7805639119370067, -1.7036623338794918, -1.7891819858054614, -0.746384351572073, 0.9742279119179015, 0.15741777889807002, -1.2516304194400325, 1.108126124304944, 0.017968598108149266, -0.6284123014797776, -1.1266600695101867, 0.06271835044764897, -1.1268245287359886, -0.2877863960873769, 0.2413836374642998, -0.7098999262067316, 0.1870660327574197, -0.20257200641200976, -0.9563901257961557, 1.1982913699249724, -0.7662595297772776, -0.036766067994397085, 0.4918222874477901, -1.598331052940043, -0.839514781392216, 0.5220685298560813, -1.040784021052329, 0.04733483171334903, 0.1263687506241488, -0.22484470086924277, 0.8098043341829791, -0.681095092943995, -0.6366280485009391, 0.2700454690672299, -1.1576840811883455, -1.593274030226268, -1.2163272302098496, -1.1347228945032124, -0.4502610687888282, -0.47433471619173695, 1.1304482825904163, 2.092821541663243, -0.3350348424306785, -0.21226890167283197, -0.9914325368235829, -0.035118369169929234, 0.795071174930004, 0.3468374665093791, -0.9287839875105671, -0.7898621197325677, 1.4135833131355624, -0.3554298066425412, 0.5400885042274771, 0.0507344376964174, 0.8398462239884981, -0.9225037287997312, -0.05197395463685595, 1.5219454531613676, 0.3093197201175918, -1.5820819257723264, 0.10635377000344577, -0.08638648284121639, -0.4377205407522492, 0.12239253240469125, 1.8813098933963655, 0.6897186473240979, 1.6714118767021597, 0.5647651710496471, -0.9906028000144489, 0.03733610924378155, -1.5153644689141963, -0.13063110656318339, 0.6787070609191662, 7.217934020761807], "biases": [-1.1146009332189153, -4.061417513792681]}