{"weights": [-0.992644489881544, -2.475872612007144, -0.8259390084765574, 0.8226230662826755, -1.2304843217317785, -1.4070412073881946, 1.7190155279253596, 0.42163297883784706, 0.7044797835644022, 1.5171263855100299, -1.187265288176972, -1.6759385427080484, -0.8307726576430544, -0.7882219005799591, -0.49270697682338255, -2.1015772459456312, 0.48201071383825117, -1.1805385935129784, -0.7564789480041075, 0.05962729508942598, 0.2427261295906433, -1.4300662286102122, 0.006204987280320486, -0.415486140792061, -0.743721464160301, -0.08186380655040641, -1.1623558533773188, 0.5031560549796887, -0.9811263376175557, -0.842152304295525, 1.053272082543864, -1.2441579616081837, -1.0040870448367218, -0.8300180140833089, -1.2879278747394534, 0.5160138432411201, -1.261619161904144, 0.8903809833545171, -0.2799531934021511, -1.0588982203052617, 0.13702799733149354, -0.6642475794609988, -0.7079630273030945, 0.8757387848340625, 0.7206365825066016, 0.844970757792071, -0.30376149013954046, -1.773485402852668, 0.37963290929841087, 0.4384888275709817, 1.0704403332893382, 1.2823313604837052, 1.5090462340544315, -0.8159945855625585, -1.340091621480429, -0.6548135555275738, 1.7941660786777935, -0.899269687630807, 0.4344250269278749, -2.4098684936806, -0.9791882358587378, 0.18976562693887003, 0.7957501777777645, -1.662827218586223, -1.446663356438485, 0.6591750173289425, 0.47632360168548343, 1.4098882639107735, -1.3776118742778705, 0.22836341145955757, -0.166059790619208, 1.4092521482405078, -0.40904139189136374, 0.835384796581152, -1.7702414291090462, 1.7120068172413403, -0.7295062474564977, -0.17181670382144143, -0.503592425371358, 0.4593307958881345, 0.2575144803557501, -0.6744354605793552, 1.320487522888058, -1.0335670826345864, -0.06494564569255515, 1.0591851859032813, 1.555025850439659, 2.6946443183389, 1.7453599613428752, 0.5599373506632668, 1.803492537461796, 0.2535396822595992, -2.7879755319409, -1.1085805092635446, -0.0031748864470032712, -3.5859153841500007, -0.3299543162698236, 0.7170474682159074, -0.3822930267062285, 1.4866026218293453, 0.29346064243627645, 0.20532157864102946, 0.6476618837975433, 1.9841976886360309, -0.1007426149533825, -0.2369293849410355, -0.6855640275404713, 0.234459440457978, 0.773989305491433, 1.1840121936470314, 0.3392458595434926, 0.161803243084781, 0.4103348418531661, -1.0751709127144102, 0.1262750737054116, -0.6162218774739637, -0.16915192913731394, 1.834238957268535, 0.4007610547923443, 0.7265426578440555, 0.9032364846717522, 0.3072569332481299, -0.8780204358019371, -0.8155154788249446, -0.2900510584036194, -0.7495086987364793, 0.8190583975965938, -1.826185256849635, -0.42226688376542876, 0.76335325778084, 0.6749176656258314, 0.2526237998147729, 1.5747188011571585, 1.4820803676119063, 1.730666758165496, 0.5094560842595232, 0.6706465327473954, 2.362496464020484, 0.09337540224334806, -0.11782021075604505, 0.1326208746117913, -1.013722480030486, 0.33110789662239265, -0.5047559982917783, 0.37000498825487566, 0.7323510218790382, -1.3905826362650877, 0.9744119608166213, 1.0394716214437083, 0.2875260734700406, 0.7474207675325047, 0.7208189557389102, -1.6503296552345057, -0.311399855391172, -1.1195755621849635, 0.8962553767708881, -0.7998468463786659, -0.5535473083490035, 1.1237163161913046, -0.8300717295639473, -0.5416243016749902, 0.32670145752253044, -0.678557003999436, -0.6078291283112504, 0.774076318910878, 0.9426807000754461, -0.5039053716022237, 0.5949047030817662, -0.08553565185073424, -1.1418182216714199, 0.03510336229102284, 0.7845945266937466, -0.9763583291124261, 1.1320210964427815, -1.1935963624824713, -1.4962385983067181, -1.4776741683246744, 1.3871089192960118, 1.9412288510906004, 0.22293260955976024, 1.8758688328683137, -0.015588012150402562, 1.068549945464582, -2.557977963211968, -0.22339923486080754, 0.17168341400084172, 0.22968430580289803, 0.03025642640237619, 1.0900955256787126, 1.1499123380451937, -0.6823603674937356, -0.6602158565144957, -2.8365938026643156, -0.052825867022862794, 1.632221348926967, 0.8386453710830165, -0.37154519240176936, 1.4697991399505594, 0.41185337170279407, 0.28859556394903546, -0.767491860261678, 0.6544874179471764, -0.33390401300908407, 1.1596394197357236, 0.6092508108776549, -0.1927092819556138, 2.51093809682233, -1.8810817633369759, -2.072427158333982, -0.025473795428736, 0.27537831004708724, -0.6322849561658964, 2.3542529262208673, 0.8328815263728419, -1.7864039468297719, 0.13444560612117762, 0.11161921465118681, 1.001356200955331, 1.4420379100084297, 1.4040375494774495, 0.08434346370064928, 2.4776813311201975, 0.5660036479661494, -0.981875797226957, -1.7136884162510326, -0.6862910678162742, 0.508355940368815, -0.3345815840702118, 2.204875550876755, 0.9951614924797875, 0.6027121133365716, -0.4318845807411393, 1.2037640447433773, -0.3041677737631446, 0.9421916958812266, -0.7829963438339611, 1.3901681904102445, -0.8199515877203932, 1.3065316177905604, -0.1854256176424315, -1.032165003900193, 0.0510575748966752, -0.45927057360266765, -1.4744039309977168, -0.013607822170485341, 1.5071188245034681, -0.3719456471056391, 0.16852833668772335, -1.410036850206277, -0.32333342671334964, 1.415541757049218, -0.2777357755345836, -0.05946911298289425, -3.335903058646461, -1.642488443906705, -0.43771740297445727, -7.142996389154964], "biases": [0.09495138089130985, 2.6960403271264397]}