{"weights": [0.3771845066083644, 0.08771092109756477, 1.1930775831798646, -1.039448582769296, -1.814131929960642, -1.1559946272073558, 0.9388788433974341, 0.9019995455630763, 3.7379441520987795, 3.8359454950412575, 1.104548796628458, 1.3412262341028558, 0.36706387695355513, 0.19534650087745148, 1.4379384007109726, 0.7119675321656757, 0.4504417066676818, 0.08149652501302142, -0.7737922470469979, -1.316500962471808, 0.19363142376267237, -0.355871938965812, 2.795364418918771, 1.2602817312169565, 1.1034659079733466, 2.0723060135298756, 0.78880322730759, -0.9822446434906648, -1.0753642792485891, -0.10027028130267684, -0.16227399604317783, 1.024965624145283, -0.44760123490943277, 0.35527153701086756, -0.9507369958493197, 0.7260736847052023, -0.8652849236043808, -1.0496013302261962, 2.0657210869020313, -0.794795055028761, -2.3615023433458027, 0.6979498152080629, -0.4968437599311706, -0.23198139300028453, -1.082828299768226, -1.2041893010307019, 0.011347907679092306, 1.5909651763120627, 0.8619374020310385, 0.13518435869231157, 0.34725274229105557, -0.718133963736909, 2.0437828997357688, -0.4079036922186146, 0.2065152799297436, 0.30898990228126694, 0.1249966772170944, -1.7903432793756864, 0.5901669458683445, -0.46387807880117843, 0.539796214728758, 0.8269762600354077, -1.7835488635501957, 2.1362161304382896, 1.4678588053358756, -0.4671720417403525, 0.3014028021953838, 1.3683981744822067, 0.4856726126020847, 0.2099600581555856, 0.6635123617336243, -0.4147565596689481, -0.1767867574800867, 0.040824801096982895, 1.1176661646048909, 0.738117915796328, 1.7238123151803948, 1.1626655127767322, 1.1886830933586416, 1.373094826016518, 0.27503210928198085, 1.7110113889999752, -0.25844453032673476, 1.0762445314803828, 0.7816118111096303, 0.9214991567279414, 0.6288653078975123, 1.2121366940169245, 3.4036878202603, 2.2642408615617424, 1.9479748914341573, -0.8110960466463659, 1.2345255182429038, -0.3365566487635225, 1.6460900172953765, 0.43237227587903126, 0.415637448367634, 0.4520081479485115, -1.1127545901863518, 0.4539803953715711, 0.6454806809383138, 0.04770352336950514, 0.2983212384663382, 0.5817149004758349, -0.6288199594769909, 0.09680587638771712, -0.4197762151969421, 0.6614412868062799, 0.5767602959975765, -0.6984122641726033, -0.9086248117166047, 0.07913228994727609, 2.0345049354273823, -1.5627698876906155, 1.1934846719390457, 0.07764800096803104, 1.2054995906220622, 0.39789073221857124, 0.06980853875974997, 0.7631476508743182, -0.09419474070457165, 0.48605900860991474, 1.368976106605724, 0.1532219834774714, 0.5299089357488788, 1.1484695121301318, 1.1727053184600231, -0.8068130376954239, 0.2974293421148471, -0.05306319358206495, -0.517202320720341, 1.2480668828365478, 0.2909438226009282, 1.6046688447389448, -0.39857563535117596, 0.23200035383310613, 0.30988025582343004, 0.3365633347862909, -0.17280218169627695, -2.372642258508434, -2.861390846083144, 1.3293723058962064, -1.8866547807048968, 0.6725125315953179, 0.06806645599297306, -0.7754657291153292, -0.3015864279648453, -1.2577211698291004, 0.6290257670956363, 1.8446695891137341, -0.09560461029713316, 0.16036188439794638, 0.8826319335710108, 1.1424314926844805, 0.6006308918452001, 0.042888630435803, 1.153549245791338, -2.2418902977672657, -0.9603119276265515, -0.5912239050575218, 1.2142617549884942, 0.34393938102534205, -0.4799829339700785, -0.33193999557476556, -1.1915075750875663, -1.4238141562435083, 0.3014815402568497, -2.0752159716109158, -0.3398063708905013, -1.163607094959699, -0.4779421466640538, -1.197673326956427, 1.0645445151826898, 0.7767512672512977, -0.7720562797322386, 0.028488969215806126, -0.9021078741495316, 1.8916661431509552, -1.3787442127724963, 0.26352602967327643, 0.9956166068014835, -0.612207492585946, -0.8827099201364648, -1.472814436242587, -0.7787794705239336, -0.139435552148805, -0.6525596395646956, 0.3987941877937245, -1.9979353923727183, -0.8480640438743811, -0.7800748280395168, 0.6911355759043719, -0.12334603166290642, -0.1737370950692929, -1.178480013720917, -1.255106230116719, -1.4687218829490856, -1.3362661739833868, -0.9235760307126842, 0.7330661260630363, 0.36662699943574234, -0.7532352993627349, -0.3346270107730637, -1.1411882172366055, 0.3855632462211502, -0.9613243650036727, -0.35205867020894865, 1.9556458300348634, 1.1115046927320062, -0.20249560446324574, 0.37448354507845405, -0.1315469692810992, -0.9559503256590348, -0.5035128076301814, -1.057216705809591, 0.2267953765824418, -1.75901391143316, -1.7590102721051712, -0.6462926827669793, -1.3977695399047962, -1.8086620380575538, -1.0299200120639525, 1.732269146366483, -0.07972068426449379, 0.8879333075807746, 0.08580081391788762, 1.0121746560287999, -0.17282828179328108, -0.6394207584507606, -1.1516624960644413, -1.5366145009383447, -1.2616002221506937, -0.39102849289382313, -2.6387368474589574, 0.029096428133794455, -0.5374528182472207, -0.7242057814271604, 0.13485497331209234, 1.218595162169145, -1.2141255603155527, 0.7144239694998795, 1.342211728224154, 0.5738243668950593, 1.2488581288027463, -1.620720371112013, 0.8227858295625958, -1.5888869415605913, -1.4024678481168518, -0.9307592670710466, -0.9176999038329129, 0.7225392640757629, -1.0918506916605808, -0.1633519241839431, 0.25374616579889575, 1.6993908562313238, 0.524543250750449, 5.892783321952251], "biases": [-0.9166052721816116, -3.893102546531617]}