{"weights": [-0.47525522783424334, 1.630168718742451, 0.37168543264627135, -0.35622751595857005, -0.38674780808658393, -0.09464902384582287, -0.5556396764264607, -0.17364771698205816, -0.16748194111325113, -1.0329476686977141, 0.3812748968812842, 0.01851428176717282, -0.5542851072118571, -0.4484732155544853, -0.863314151796759, 0.020059178831697725, -0.19716725743127636, 1.4500853740821955, -0.75417900067398, 1.0016220002745428, -0.18099106826972544, 0.15058329058994793, -0.1421325165793568, -0.8730143133435047, -0.32017843398351303, 0.8007360461307668, -0.2509064538250438, 0.13781704370600356, -0.12647119956043265, -1.0828747955453613, -0.9592603491153332, -0.964630465334381, -1.852939603160103, -1.2985740908285213, 0.9725026603759569, 1.30210453914915, 0.9747903713383427, 0.43031080567691193, 0.2503957285768988, 1.2921770050770394, -1.3251616514423572, 1.7978613483873265, 1.655324630570332, 0.33503601915300835, -0.4467017478903003, -0.30431645881683667, -0.05095936599156934, -1.0029106343502088, 1.0428466808507881, -1.2012489822564794, 0.5982260953509475, 1.6006868403356003, 1.4234002248822757, 1.579724845063917, -0.4265832084256545, -1.4716270786290941, -0.5813011087415544, -0.8977110501732787, 0.47650800832089607, -0.07538042261981046, -1.2975561222277099, 0.664986957739209, 0.11757102826643297, -3.3301761633192553, -1.1275834228690282, -0.09859154922118425, -0.8942378597895003, -0.7346684946944776, 0.04789012673911083, 1.3639597535136243, -0.4432172813348704, -0.5017584314473817, -2.098706158717906, 0.1518012583951988, 2.018149279573302, -1.4401061064463339, 1.0457506550826812, 0.8271858808096064, -0.05688706419492415, -0.13797364200029147, -1.3091537512005866, 0.9186984202122712, 0.15085115069842514, 1.685064030312846, 0.7603901322714312, 0.8805193123202971, 1.0142934283721898, -0.8162079897997068, -0.9915253887643726, -0.2964494378839479, 2.3966347390497083, -0.15078149049987413, -0.10192748560186826, -0.2695722370086879, 0.6063222686623628, -1.2891169879114996, -1.7894895767900387, -0.992403748231107, -0.48393598845769137, 0.2569678976312178, -0.2606389302060602, 0.4439684050218159, -0.09649118351529591, -0.30018684193699996, -0.07730549079793202, -0.25701221922036627, -0.47484202597549197, -0.252880127000663, 1.7180728222264712, -1.8599483021123442, -0.2972162025462619, -2.6077747893656626, 1.3398774898289507, 0.441329430497031, -0.3539794650662097, 1.0114814057966985, 0.18795240562246887, -1.3240307537233011, 0.8067002114620982, -1.2442323990036064, -1.1018947262512933, 0.8434031204165906, -0.35307590184475046, 2.071296622883236, 2.113009639666223, -0.6700266758802346, -0.7340915162445011, 0.761052581473466, 0.10144890774897175, 0.03404430911542924, 0.9977457009895419, 1.5343973433302431, 0.5028915905182999, 0.8194927267100818, 1.6083044364475414, 0.29946857393909676, 0.7119318841078925, 0.967353370847264, -0.1691508198313232, 1.239318622989764, 0.18010111760513742, -0.05231112749257128, 0.5019741652218243, -1.3524151119783443, 0.5037499284572433, 2.2900493698552817, -0.9911698666212024, 2.641560482053808, -0.5181172281095059, 0.7011714688424058, -0.2511036834957689, -0.29164349096216186, -0.6560637239405945, 0.7821476679720754, 0.6705877249902987, -0.8850930698151398, 0.9519622389682227, -1.2314315424679272, -0.3799479208460553, -1.2255532350332685, -0.9280047038285442, 2.2248716240190514, -0.881417723212714, -2.2123009433480667, 1.878269910556911, -0.17339119093031585, -1.6729015360370851, -0.6568749794854262, -0.8042140915050318, 1.4238279467502075, 0.23653554307721592, 2.4915512581218984, -1.5414776736334115, 0.1341201805411373, -1.5690841774760635, 1.146299809914474, -0.6590527180201944, -2.528385754697204, 0.3324568167836713, 1.3503155506702342, 0.6300612632915824, 0.4672116748639691, -0.8721189282616391, -1.1916114673191693, -1.2153614207908536, -1.1471254191794922, 1.0664998772592056, 0.3857301975300907, 1.963656359001326, -0.06646423410715559, -1.5336753393271432, -1.5010432172142707, -0.4600186263532856, -0.7463672590746148, 0.8740613888293867, 0.37461948473291484, 1.5921391708329902, 0.04901384644970937, -0.2012772768440177, 0.05080064902356482, 0.16690853716010903, 0.724501718576494, 0.8451579658183472, -1.251747120269806, 1.2941158679202087, -0.5668752909754388, 1.0541176579455156, -1.514330548051918, -1.4765129305575084, -1.0710643169233585, -1.5970865535661303, 0.9600570205442193, 1.364479790842123, 0.12027557246871218, 0.06997506222259806, -0.57523707877579, -1.8684697018336558, 1.2935017786463283, 0.6084046148609308, 1.306965513636029, -0.8044852626188363, -0.11129769492699872, 0.12431240607946657, -2.278541651128151, -2.214298205961719, 0.7809592545497579, 1.118919795157178, -0.10291112277480154, -0.8283175051274168, -0.5943500671647234, 1.507082489738375, -0.3909871154723449, -0.8069314442121154, -0.5440850901795761, -0.8887483132935835, 2.364459425427918, -1.1818982999786298, -0.2688166234144927, -0.532681591973618, -0.6572666280341883, -1.103090234678588, -1.216177146706522, -1.7237030248105205, 1.2053986529426204, 1.4652184396393642, 0.8976314086712602, 0.06787546981673165, -0.47530807384995266, -0.36671339671884, -0.052057479036351155, 0.27285335490445645, -0.23329455426155057, -0.3558584040641665, 0.1852206238103597, 0.6871373214531532, -1.1257710532286511, -7.577195570061311], "biases": [0.3462816251853673, 3.148489863640965]}