{"weights": [0.9150764282172184, 0.7945677038627589, -1.7364193087007618, 0.13369187781080571, -1.9267654394990437, 1.3420390910722542, 1.1301657681225934, 2.133518395009359, 1.2760106314850654, 1.6344743532786106, 0.3383495366341667, 0.0393546822485851, 0.7754964338006701, -0.299832165546155, -1.3038523003599585, -1.3094820106771672, 0.2910916943768555, -1.7127848220525603, 0.34685449072103813, 0.5058158480161117, -1.4668600384248354, -0.2777931922828383, 0.9655551570369426, 2.1244197447132254, 1.1701402030366268, 0.7849904097022987, 2.0470942620186694, -0.13673501080502412, -0.5384159129333475, -0.01656795522089798, 0.3544089059514132, -2.3770391494356926, -1.6593249168639885, -0.7011718554353278, 0.6865166194372544, 1.6920760511628892, 1.7901583850862048, 0.16592355569743655, 0.5263890910391833, 0.09993472845502922, 2.1860708022029836, -0.03972683981705773, -1.4036500746523133, 0.6821747964357594, 0.2584788279231285, -0.7720706276397121, 0.5991211254760075, -1.3076071446960087, 0.3350958892368086, 1.9635417876439656, -0.23633857056371393, -0.5139897530290539, 0.6755276472741895, 0.9611976026733986, 2.5140668724210737, 2.8303810539630496, -0.07344070659230689, 0.6066613695324801, -0.7036841604333283, 0.9366882772946385, 0.117734069998378, -0.6003614904283443, -0.2548654039212251, 0.41480802200624206, 0.5384663208678565, 0.2216701853305109, -0.33501941075774344, 0.0855142313825308, -0.5451338194452838, -0.04651641249719351, -0.9910192660361832, 0.5512455922777404, 2.6011129008044356, 0.00867995613417925, 0.05655821715051908, 0.8673495272650633, 1.09636003769655, 1.9454912556228587, 1.2663581457370139, -1.2188075590530487, -0.3725328341530083, 0.674756010986955, -0.7501418572188984, 0.5417730591451627, -1.101985811639845, -0.6353864125262596, -3.6334130176568986, 0.00889274791850128, -0.7623576893490507, 0.520302049479672, -1.0895521157724442, 0.43299734486871133, 1.0107051080744518, -1.231687069243795, -0.7919788234805507, 0.24342105598382907, -1.5218639385663306, 0.9349572977851791, -0.42423410174398046, -0.5949154822871701, -1.105466232624714, -1.4676602061115949, 0.4733107865893508, -1.2347957986463698, -1.3121466540751938, 0.582093094217763, 0.16670478272812891, 0.4020803676229399, -1.9812602076293877, 1.0600986169518594, 0.2671727357068208, -0.6093222559734219, -1.8146622058152495, 0.6152369576778175, -1.4221464753151005, -1.9012711991063271, -0.39749390026829956, -0.5067800685120748, -1.4831020404449997, -0.3828186019183876, 1.7815205987598401, -0.08733029953257564, -0.8223813378335127, -0.03255286596439826, -1.0251088999743136, 0.8194513486675437, -0.7779591237923691, -1.318630835459702, -1.1006507858550123, -0.17186000510533958, -1.8465847868988456, -0.15753640232384084, 0.6996785288818984, -1.4175966951973413, 1.3938531030792138, 0.3484160230676872, -0.041522271222922465, -2.294625308937659, -0.5188464316290271, -2.030790178682667, 0.9378182144701105, -0.14944041525772414, -0.41432999588653036, -0.8809447808963644, -0.20983978305951548, 0.6249311125736328, -0.40397669137333225, -0.4601737551635557, -1.1386801712710155, -0.14896208939802338, 0.40476253859807804, -0.3566208965084749, -1.5693872207402593, 0.6886426896513117, -0.18472759211185882, -2.22754835362759, -0.8249843472645524, -1.2567265109542183, -1.0813008370739725, -0.07572801497372134, 0.6834044306885784, 0.12710736080678298, -0.6451018533536643, 1.1779595635738116, -0.4039007192869221, -0.16932693894450349, -1.5590474611908178, 0.04359585834459557, -0.6635396158827415, 0.5565520863401131, 0.6404225794530797, 1.608466787937454, 0.7287244054345191, 0.7875140041885975, 0.5516885209308794, -0.8836235301328433, -0.1997810045649919, 1.2261813230550922, 1.8999171662777747, 1.5940611561257767, -0.4424956220576395, 1.4382070970546657, -2.9165036810368847, -0.6387991096754246, -0.9917573884394101, 1.564443369105891, -0.4669720024808735, -0.4076080753218145, 0.4080458938347465, 0.325666006568403, 0.898680612786124, -1.7652505820788522, -1.1556068061370024, 1.9214124465706388, 1.6425175470502504, 1.10474827149264, 0.6271925023267394, 1.5662910555550094, 0.8648758219515504, 1.262777461994851, -0.7820973383957138, 0.12240856775511416, 0.619920511142631, 0.6710497627974558, 1.4559766750286909, 1.2163685404347966, 0.33121644935442357, -0.9758393227761774, -0.6863957282766496, 0.5477685702494716, 0.17504108325758325, 0.9539930367543099, 2.248606552312586, -0.11909584179486049, 1.584480404450728, 0.07376210781136296, -0.16940733334255967, 0.4443512379227308, 0.05646735966422003, 0.7436571400404215, 1.0768177049074918, -0.9651519805040247, -0.32505345468571173, -1.2544729381021356, -1.4218079828957588, 0.43076484182803837, -1.4903737977803198, 1.409869951391607, 1.3555176396515083, 1.103718823610953, -0.07301887034130733, 0.8925750411183424, 1.0441962964632177, 0.614523156638084, 0.6917436356181886, 0.7935799080472752, 0.39803414774417745, -0.3469560258371639, -0.17813090792001376, 0.8455577548382809, -1.0794890072866894, -0.19915244598526777, 1.1594669108400597, -1.7340622477730165, 1.2554041278619263, -1.3335729706213317, 0.25885205553727203, -0.21621654790764477, -1.1080707880194236, -1.015350913918614, -0.08135732399436739, -1.1872722535561775, -0.9511082003553577, -1.6193945983274363, -1.4464602227091867, -0.6247691614475169, -6.446000957987018], "biases": [-0.2893870001118439, 2.059146271468416]}