{"weights": [-1.9337120162803432, 0.3042740394170761, 0.9147242953173417, 0.7607267958202748, 0.38025348918536933, -0.8528211748993071, -0.4209841728640534, 1.3065220065959398, -0.3414619736259128, -0.3848781900036909, 1.1093772661728776, 0.3948251254607107, -0.6186582546590433, -0.5562966068056973, -0.9822824606988592, -1.4121322592813605, -1.1313841716342832, -3.348238755730708, 0.5993166388112912, 2.191136532969082, -0.6144666137228588, -0.6147945172015348, -0.9102524828474718, -0.9376722109059131, 0.18661101381165845, 0.6740217421366768, -0.2786025593824566, -0.4030000165035738, 1.0558372600798471, 1.1042294225898688, 0.7508718820971343, -1.6563040281663455, -1.3506538750004675, 1.522123373166748, 0.364250330089452, 0.38082928406227057, -0.5735651320928011, 0.5235308897480884, 0.8929174568257434, 1.3458573692411064, 1.712546229232452, -0.17254602534688604, -0.6385698798025555, 0.14685138691838412, -0.27194900770720826, 1.7183212738138176, -0.2507943803335239, -0.8181118320163923, -1.2197722101294737, 0.5143620480941422, 0.2210924855465326, -0.3456515872141217, 0.2655542750515221, -0.4007075180162102, 0.7028980324065366, -0.010166841696994666, -0.5318384728302683, 0.21989506035267656, -0.392687354144938, -1.358136755068673, -0.02406616610737885, -1.0621933569418693, -1.0855750895795175, -0.8331503257055832, 0.8149185142581677, -0.4748983370282753, -0.7629019689774335, 0.7338657105582634, 0.7895208709166341, 0.7391043383499414, 1.787681178591858, 1.11279218098694, 1.0979906128760808, -0.9115377654816363, -2.473826017473331, -0.8652934529091484, -0.5489698527570285, -1.0090917124813878, -2.0355315710443094, 0.11418317446419178, 0.708875106519246, -0.31520722632487613, -0.1450064647523381, 3.1106733167277083, 1.3140643198928796, 1.8661405296251115, 0.8139096957851973, -0.32179455117150313, -0.7181469948801498, -1.9132731240690943, 0.6623461257671082, -0.5335876852854907, -1.5897889080013814, -0.4109598077873595, 0.9381092208358341, -1.2002591552365984, -1.7392556238056447, 0.8900455811846782, 2.0642457051276955, 0.9577582795205317, 1.3123208561336166, 0.09773269092061529, -0.4377179555142752, -1.8543444049142301, 0.19062758220237844, -1.6155014923152933, -1.4545399781783632, 0.7139651328621851, -0.4052568606938581, -0.85497854323661, 0.6457807082089986, 0.47841644760430785, 0.8881779484900263, 1.3385270771995208, -2.0456925978640097, 1.6041135111618239, 0.7322333635573303, -0.6176721036043028, -0.7507401007975735, -1.788601846255201, -0.7349497320022892, 0.29224847059543435, -2.6423815240109536, 0.6004493084882618, 1.6924695958838207, -0.47193435931462874, 1.6919611093393476, -0.8769014925635735, 0.44393246099464695, 0.5217730108124272, 1.029023149211039, 1.2247557355405103, 0.8439790669809099, 0.2048860491876407, 0.8526271250299972, 0.5762381031173819, -1.3680803262606236, 0.8011390220646909, -1.2964892737503984, -1.2137646322339666, 0.4055309745820146, -0.8508005627336609, -0.5284745866131363, 0.1454806221306947, -1.559962053108557, -0.8505871864470651, 1.1306068094976205, 0.8955394124230212, -0.24660097347271545, 0.1202551146365771, 1.708451023169674, -1.2930143040897744, 1.8135966906366028, 2.429475594899382, 0.24204898398617528, -0.3112599974120974, 0.357596247887521, -0.5213305643835581, -0.8265161285603567, -0.8365238549862869, -1.733878718348169, 0.31395692777934253, 0.7295425607851713, 1.3275086694608227, 0.45779574033636494, 1.600477300652296, 0.9501038790337816, 1.075465689825153, 1.3137342839594395, 0.23615495322792068, -1.752404204861877, -0.6972755670151813, -0.7476564899641296, 0.6320484769178604, 0.2629145711432129, -1.9393947811391414, -0.3143967804404289, 1.4418196389396223, -1.1198115815070475, 0.5803181095140268, -0.480932232483008, 1.5021900905877457, 0.359650538182283, -0.4689167172750823, 2.4623262244298485, -0.18062920376588085, 1.3477498466105797, -0.7035939916163323, -2.0648142204804207, -0.3109088443179537, 0.20645374393048285, -0.7266962049448912, 0.3757385469798306, -0.4239512396623604, 2.3798956852943993, 0.951514297934178, 0.23456783011557727, 0.07738787553788104, 0.15513530242742415, -0.26401140377360083, 0.4250533863445328, 1.1715885760094056, -0.7200671245011325, -1.8561243632100919, -0.819212019374321, 1.5599005325065378, 0.3468991916329171, -0.874855102307562, -1.9959660095856389, 1.4277068372047046, 1.169416224043035, -1.0690976726447372, -0.5127052760246604, -0.19202990583717583, 0.09837089209430304, 0.2514533132486886, 0.3756477419193196, 1.020214537162075, -1.1872001725257908, 1.433503709438777, -0.654233287550639, -1.032031975259284, 0.13279919351481467, -1.8992682415663729, 0.17867129854804337, 0.03972275728793278, -0.3794229922293152, -1.3607743951725215, 0.6652366469147457, 0.16340121674692684, 0.11863999292172961, 0.688082671550041, -1.0382307410621612, 0.43758246008281304, -0.1415818114203774, 0.4001104983696751, -0.5744391263171094, 0.25781594084263154, -1.8473316860362132, -1.1666101889918008, -1.4195722473824581, 0.9363403718566425, -1.1663333575451087, -1.3751378720898897, 0.012560905169231057, -1.7516415912748606, -1.1058093108617575, -2.2819062003379416, 0.5775481910742961, -0.5707875342983165, -0.23297571514340296, 1.9511702521607266, 0.14966765651385014, -1.0110503366146053, -1.4534944605407436, 0.6519436555883457, -6.408237382753114], "biases": [1.5790015783626699, 2.2461349405145197]}