{"weights": [-0.19534091653423385, 1.5896107034465436, 0.324165202040638, 0.17383995613628198, 0.202799731587501, 0.38536722191312645, -0.3173772359526738, 0.5464270874925611, 1.4698777573352382, 0.7833368042122899, -0.09002316620175817, 0.6212772088198674, 0.5077989673018282, 0.07055902506530302, -0.47556896005221716, 1.7400769746593563, -1.5247117699375503, -0.2740116251480212, 1.2354986968809383, -1.8164004876759396, 0.0264809735666648, 0.3149110652336108, 1.6384641539085611, 0.9815420989529108, -1.337726565171095, -0.4125666138483809, -0.752447561316705, -1.5431121736700293, -0.18941711663906677, -0.3555568182382251, 0.6789167903543568, -0.05204718427931043, 0.4864929270005874, 0.4635557229227502, -0.2586458182260333, 0.2705066051841235, 1.2542302643979875, 1.0518064849422497, 0.7719276475983851, -2.8513268313467144, -0.9676369511014024, 0.7907054330675022, -0.8907398853229532, -0.04431384622389224, -0.6055333480145166, 0.541332038723135, -0.6282892092934215, 0.3032899075736246, -0.8869631429277987, -0.9998072151222667, -0.06701634990474684, 1.2475595386100207, -0.444632837489498, -0.5410558270734781, 0.6464844407501112, 0.661032131318392, 2.0634050652066107, 0.2687652705131732, 0.427371180289205, 0.574633920135643, -0.28638712480286704, -1.344646124882613, -1.40221636484908, 0.11782742952587734, 0.2738803293806707, 0.7075102493961246, 0.8321372141837695, -0.825127881796182, 0.3653088841440145, 0.1834562794674723, 0.06013644101569989, -1.8680589421514289, 2.1038573163277445, 1.501944885136314, -0.5571427028198358, 1.9421429462337272, 0.35265898658817135, 0.11439776426664677, 1.9478092056492948, -1.1113665793110559, -0.4316572741969401, -0.12574411897403906, -0.13920672727007433, -3.0050730616984604, 0.506689191872043, 0.4678075096461075, -1.2235852513968997, -0.881216718824799, -1.5336393051468193, 0.2843032811672151, 0.2569587111971099, -0.40109801126353567, 0.07221356903416612, -0.7579681761846656, 0.08696586586641489, -2.2270697678446685, 0.07099124496767446, -2.2041625022171996, -2.1711247754281713, -0.2288485989584487, -3.1910759080320754, -2.24068772686224, -0.9286610182779689, -0.5280937044422066, 1.5061523482387362, -0.657802461555254, 0.025412414973945113, -0.25105124783238836, -0.514830492103645, -1.002777164122249, -0.2748591098835191, 0.016209214430750848, -1.4397078935748062, -0.9342380445853663, -1.4368048733200414, -3.4257640971077867, -1.61072158325067, 0.2526454674183663, -0.1023480724372811, -1.2863857949299196, -0.925432935230363, -1.512742158711716, 1.0118857188752417, -0.47327396040877795, -0.9908140837258775, -0.5656012085378813, 0.412774585096823, 0.537135449481024, 1.0036856338128115, -1.6312183543136671, 0.6279808850243712, -1.5479405828055637, -0.00010725352027900678, -0.2969164863815964, 0.09029268379134921, -0.2646006646908348, 0.1455797285736191, -0.4618827076892741, 0.2403251556296211, 0.5918550525293544, -0.6913956096461915, -1.053375382686752, -0.14678372101112247, 0.274577001337217, 1.4897113096341075, 1.0555596386434933, 0.046342921331714165, -0.01286330652897348, 2.3715816699882244, 0.17053863542972045, 0.7477805790842058, 0.4465147228559856, -0.2652654275410004, -0.4302252623755433, -1.7302487845042946, 1.0698369123736091, 1.81144744559743, -2.685973639318158, -1.4538657520189757, -0.8638736348342485, 0.00874954921559215, 2.6814002838746265, 1.026145173219569, 0.688458261482423, -0.06956049294372751, 1.0416574679404442, 3.558624427673695, -0.14214512959139997, 0.47047650215699083, -0.314680811742317, -0.06959463609727579, 1.3486075277395193, -1.4564532212024142, -1.5493870471660063, 0.2079582298580627, 0.1859523147966811, 0.4932585738375988, 0.8214234554222655, 1.3760555704109907, -0.22262891471744709, 1.291361598502893, 1.2890005758417695, -0.30547087587631727, 0.2255398406554411, 1.491966728540182, 0.9490276899910663, 0.3314002542502026, 1.5086117310534153, -1.2820067541032616, -0.48301084812619544, -1.0819129910638425, 1.6957153414359203, 1.0078207180065535, 2.026295080049959, 2.232811125436639, 1.075860583674838, -0.15796747299628217, 1.0388489852809952, -0.9572180478326607, -0.27588075504104476, 0.5780582555560121, -0.0019815467137670358, 0.1518695933357824, 0.3518583685512311, -0.2516789193324675, 0.721695934743189, -0.4205798241562545, 0.29425718922138416, 1.0865655800759613, 1.1544946887771823, 0.3733966600216275, 1.7879692573250177, -0.3622063069872156, 0.17577915648476186, -0.5383372920092244, -0.034442051944871065, -0.7649031309756021, -1.8844554829560012, 1.0260538466468807, -0.5921322505310052, 0.8019157429763017, -1.1757139625938693, -1.3631300736751208, 1.8775920982356573, 0.04200101818355522, 1.6331736452380357, 0.6609284185514026, -0.4282605931493401, 0.15795581251775076, -0.48043937971237005, 0.04435441680662731, -0.35002717453677806, -1.0143062638124913, 0.4253179330392253, -0.6969289260254152, -0.7886062027481134, 1.0839854089533436, 0.3594900620736484, 0.9436930155032964, -0.06192992506518391, 0.7585825577290508, 1.685289522624827, 1.8888280814759848, 0.6659478426785813, 0.7181793387393837, 1.116311510507225, -0.23064547318084472, -2.0101196785430946, -2.0162401312662763, -2.4680682924016337, -0.773621495304627, 0.9169118660186482, 2.194777299164265, 0.2476098971082002, 0.998204240239191, 0.9836147312037025, 6.654168992350798], "biases": [-1.7054295872685161, -3.946322914602324]}