{"weights": [1.11592247695318, 1.669008257105913, 0.2097040976855301, 0.1691678351512668, 0.5906280741201171, -0.7006207492665136, -1.00630074858042, 2.310772163730177, 0.9612379851921654, -1.237912526569567, -1.4336447018432474, -0.1656820518874939, -0.49321542581892713, 1.268723337891373, -0.1668531191848166, 3.0627768164747606, 0.563250423144853, 0.3801985516664657, 0.8232342424541188, -0.36485711369380525, -1.9913254686358912, -2.3406094195404905, -0.94498334708112, -2.593139999159829, -0.41381217704215467, -0.08929509969385671, 1.0497472014213391, -0.5900090057415314, -2.0901374440504736, -0.017171767048764226, 0.6920375794695399, -0.4089886426005368, 0.06325109331568451, -0.008260292892719517, 0.48890212425825014, -0.5428107664772228, -2.6054386444654263, 0.6916838925324796, -0.25006808755259363, -0.508081974387178, -0.5152596564686609, -0.881275262718925, 0.004703786692615363, -1.2384363698929808, -1.5822138070297187, 0.786719851114476, 0.04510842693128723, -0.014619312405301689, -0.4619177250640668, -0.35082806879775524, -2.169925266351214, -1.5103489466661268, -0.07255010782345032, -0.9107496089352484, -1.6739396831251525, -0.12586753769877498, -0.19675971645391627, -1.4644750613786406, -2.6237211342513387, -1.0948793018377216, -1.3817696047219845, 0.8621630302035664, 0.34825643094644826, 1.2826696042390626, 2.0502700620085834, -1.0965956101302194, 0.6961550580561096, -0.8626429998436465, 0.03305025199290985, 0.3007093289923336, 0.22291710883910673, -1.0409265380909132, -0.7327255122062325, -2.0343512332685942, -1.0727956715619065, -0.4164316494964092, -1.792086893662755, -0.7417610670560622, 0.1551904208315408, 0.904523125361652, -1.2028436807128602, 0.5449643506632557, 0.91639712139142, 0.6096246422810578, -2.537780541551456, 0.29575525099208166, 2.0402067147370135, -3.1274990070361475, -1.2239440602694307, -2.2263510052830524, -1.4197285178056616, 0.37352467372774534, -1.0405198688616633, 1.6203482540777159, -0.3667193669250704, 0.8144429210613985, -0.11556368357430086, -1.9714600051331672, 0.7509353937973188, -0.5812010382770936, 1.8355628095517442, 1.1726391430003287, -0.9987233712165897, 0.6893209302146353, -1.2046690954705217, -0.2780758389785216, -0.738996097902401, -0.5341984495533418, -1.4533595643909638, -1.1770155496186887, -0.7805276946389287, 1.0110978759501268, 1.0569981493206093, 0.7040453498593243, 1.1475953088294322, -1.8054209057933044, 0.9984579603816157, 0.7170058639490049, -0.28455280682688877, 0.506316409948912, -1.6658612749064219, -0.30460341038602373, 0.38812494921099683, 0.5574206558686465, -0.44174888924516503, -0.7422094597453079, 1.2394096768945286, 1.7348870173921211, 0.28617387945802464, 0.41466446800505863, 1.6180518141537314, 0.9175523367249603, 0.5992966450303321, 0.23544405864004023, -1.6620397476602635, -0.5903486081078703, 0.5706502394431271, -0.01316171019875916, 0.9504862200790817, -1.0015230496710785, 1.0178698923268066, 1.4635204898697245, 0.6107807399506927, 1.9295402929288963, -0.20603696390139378, -0.7401396623094864, 0.39020008219451807, 2.3277134239634827, -0.6594311329612926, 0.8412148394691912, 0.06673110944211817, 0.572388686733674, 0.3974561430131735, 0.9137781443529424, -0.4479401497906569, 0.7174955124182463, -2.0008844691977705, -0.5284511751145424, -1.662751981300495, 0.7763239286085052, -0.05183200964753753, 0.46287825146312955, 0.7680104452249173, -0.5887866611544587, -1.5205352250346234, 1.5302610451236673, 0.6268989846409265, 0.5410535836978757, -0.31645453584468064, 0.42010249211750833, 0.8610641662496606, -0.24747609005895227, 0.8515289764186839, -0.8078120707518116, 0.42789496472853983, -0.24465732734682386, 0.16472303316164233, 0.07463637077381756, -0.679619255706519, -0.8698682455254629, 1.7411427317919168, 0.8830430227757476, 1.0093125268738738, 1.0819459968037963, 1.1587860128955452, -1.154627263836718, -0.9196751462594491, 0.6712066167237969, -1.3122955250813735, 0.08360134212574287, 1.176340398687714, 0.9544737507708889, 1.054110863082296, 1.3967155268447817, -0.37150670356905147, -0.05158529080673334, 2.3621932338760976, 0.9424852706163549, 0.04985468383333373, -0.029956712031400837, 0.8329287281918203, 3.2391638443210686, -0.039284469903033956, 0.0911243802085002, 0.23076360486487696, -1.029154045097956, -0.11157669459177547, 0.7461211628718523, 0.5972809879641859, -1.0379051628344889, 0.3512281936994949, 1.3599880362852979, -1.2461433536791156, 0.3659042793031524, 2.216932743317139, -0.8585091513961327, -0.05440787463498655, 0.038239927502819925, -0.03687457938881494, 0.6128095576288252, -0.12400993130544893, -1.8206607283439498, -0.6575999548316506, 0.6679160773978285, 2.395452172569983, 0.13338597034796193, 1.1872428163103987, 1.1831358746588911, 1.2341175398272026, 1.4601906138349081, 0.6980803334723725, 0.5904713528774139, -0.2311856851632078, 1.4622434315276998, -1.2013450355073434, 0.5383401016020042, 0.5946937484487199, -0.8903764490874281, 1.2306669700766562, 1.62906501354641, 0.46252367233601926, 1.3384930695371349, 0.9191138905105826, -0.9847429500117553, -0.14915702444077664, 0.8229271094488938, 0.7041962886612506, 1.1738048456954204, 0.6339975478675421, 1.596319067046608, 0.7445392234915091, 1.0109875805435447, 0.18636296950568274, 0.3112934266495157, -0.40090611211332977, 0.511779919076624, 6.497590441139259], "biases": [-1.1979267340469444, -4.004383578804346]}