{"weights": [0.7218670734490777, -0.9476695389340557, -0.7474937375056675, 0.31315762574519557, -1.2729325980923427, 2.042499194718414, -0.18364633587047854, -0.3779709185421272, -1.0402294903344593, -0.47717749649934443, -0.6389792155499168, -1.5929508039554083, -1.2087291512550948, -1.365644342052078, 1.0850700212860798, -0.2710319066245161, -0.8043804192326226, -1.1940180789689554, -1.912875638622199, 0.10954946791706834, -0.09702746903582599, 0.5919712317084448, 2.026204756345029, 2.4362641975086996, -0.5487678036741921, 0.3086912781476778, 0.3043805821120469, -0.16922356861283125, -0.012984349021241253, -1.190665248854463, 1.1057804602756907, -0.11635115739623621, 0.09048536194399091, -0.48102661258649504, 0.2233699171675221, 1.2242934750903982, -0.7716278640613571, 1.1279120916787027, -1.4434663965430554, -0.8713295743014997, -0.7664277285078535, 1.0579285473297932, -0.4536027983922172, -0.11112504863806519, 0.11887922297485526, -1.2851217338596927, -0.807652752546431, 0.060717867785428106, -1.4904542632207884, -1.5291818216868338, -0.9623338683110545, -0.2880843134959555, -0.7164009132266559, -0.39514961382255087, -0.9251039751681774, -0.3672480107830822, 0.5288797190528255, 0.3072207070936457, -1.1841129876381964, 1.1898470099778193, 0.7707669456807394, 1.7436571478159302, 0.7336900697093486, -2.5157162124240298, -0.16191144312701516, 0.7091135115462756, 0.8000770938348836, 0.8005915941522822, -1.4753891627779099, -0.32166321502191786, -0.9293749028580975, -0.585606531728119, 0.048344467617202964, 0.8645844935380355, 1.682241703445677, 1.6094251689205619, 2.3481358079408703, 1.6058864259364036, 0.3751702627517761, -0.8047916449044475, -1.7533694281422627, -0.30479981730208394, -2.7940594354269987, 0.33920690825631544, 0.5870215406721684, -0.5674510530868024, -1.0625374993645123, -0.8008347449708553, -1.042725026114957, 1.7953768090206743, 0.23398753269654857, 2.0120136755969753, -1.1074650449171393, 1.2389253878593387, 1.0511933160632287, -1.3129442716596176, 1.1437379825883311, -1.01948691770977, 1.0330579003431173, -1.02514468049197, 0.2938840630019726, -0.19335696472611222, 0.20617182564303668, -1.343001676456713, 0.570728558373703, 0.3373478637316827, 0.030208580141463815, -0.39724758309577307, 1.0243490997288855, 0.25519750059923274, 0.8737631494451378, 0.8469119278246049, -1.8385893642007831, -0.6178101465627572, 0.0067369645994569405, -0.394010192537586, -0.9016715104407399, 0.21063640241527656, 0.1860972861731334, 0.21188055484451027, -1.6309112985277285, 0.6441436320313958, 0.11910186407580103, -0.01029769137537887, 0.26997682414734325, 0.10051613509285072, 0.31829985096603897, 0.44048810968133245, 0.9894935146762213, -0.8768685379117319, 1.7971819290097713, 0.9667786055594664, 0.47686582794397636, -0.8899455811430383, 0.7226093944819282, -0.9982956328122127, 0.30505146606840167, 0.5553553294020512, -0.8877505559432988, 0.426094811884634, 0.46610830391661207, 1.0257760441625314, 0.5700075177954116, 0.040787596223213415, 1.6043768111839212, -0.21612285619755922, -0.28421762345290436, -0.03967856871771984, 2.1488473947640268, -0.8087180815958425, 0.3866689810784795, -0.0851648954922865, -0.6528699768151702, -0.06808502795321968, 1.5468521287071186, 0.1264527781907022, -0.7718641134051875, -0.32048003265429226, -2.9181697114864127, 0.644637480434065, 0.7961851501274271, 0.7481585367012495, 1.6826285740156877, 0.9556549712778738, 1.4305360982321715, 1.7187519026106612, 3.0767278395137407, 0.9236766792834047, -0.2956942963414417, 1.6641594054735611, -1.4502969888340407, -0.45371412352650803, -0.48960385204459805, -0.2168120044725279, 0.12269482601141189, -0.9004035984577551, -0.3164888320099374, -1.0810033341323286, -0.49556777047007156, 2.382814301195388, -0.9883749986637095, 1.8683996329541146, -0.5015910116272682, 1.4575644094817322, 1.317149034224066, -1.120648536249887, 0.08182801779874001, -0.09315062690010188, 0.8252265121334135, -0.5780709798756172, 1.2242844324536946, 0.12804849583485806, 0.5468653092742114, -1.0932321274728594, -1.2656242855903406, -0.04515564396322548, -2.881825661191159, -0.5396711157700103, -0.7732312480572571, 1.0446396390144908, 1.0345660542833985, 0.1940415515698832, 0.019357269575450753, -1.8353930581389613, -0.8796529698685942, 2.973400004777066, -0.1327108548193492, -0.16667962953058107, 0.3815985263832157, -1.0657950079348217, 0.31970242988471564, 0.46815831488702525, 1.6670476621394128, -0.10366370178966093, 0.4758762933377294, 0.33900313751124156, -0.06208601031720768, -0.6219477409183524, -1.3893518398268827, -0.5837316009439854, -0.9290845644075711, -0.9798320564618107, -2.005690684645211, -0.8652636242647955, -0.5563058452972577, 0.44911681892743943, 0.5896320483900247, 1.232351123661594, 0.003227416493169112, 0.11582885728775684, 0.7343488303763932, -1.7615060553164756, 1.0050323801998537, 0.36322181682682037, 1.1978836553380745, -0.557377555051101, -0.4427169523406926, 0.0643225526752542, 1.073561618085674, -1.1047769839978605, -0.3760111312541489, 0.08079602060875053, 0.2302297629732766, -1.4704890238898545, 0.8723560381494512, -1.4878520182465373, 1.519203556549497, -0.4058130072067948, -0.8317717546793275, 1.521491966427978, -1.077024935463068, -0.33183719174666243, -1.2297409507283126, -0.636207967602081, -1.7329659088549612, -1.4469814732080306, -5.561318198280399], "biases": [-0.6117951984480139, 1.9216167233437016]}